{"levels":[{"inputs":[0,0,0,0,0,0.3361107639425064,0.6615522024430525,0.7668731023590892,0.8168333718591103],"outputs":[0,0,1,1,1,1,0,1,0,0,0,0],"biases":[-0.48475963693679724,-0.17117841381035054,-0.4719363631728267,-0.7655657984198525,-0.7540177383371208,-0.6740545381960528,0.6418687213599534,-0.6612770792599952,0.29579024502525514,-0.6142919914133191,0.4243960472402982,0.475788218267012],"weights":[[0.12854138468043913,-0.6992509876428873,-0.28554451194582403,-0.3240929029286708,0.7418437066530544,-0.26868702721460164,0.282758633449975,0.18407539347069582,-0.10540973709796123,-0.6717820409802658,0.4974607130046873,0.5841865427036217],[-0.5624255866900356,-0.32626468118060237,-0.632795271078658,0.4979300000143007,0.5131139147242737,-0.66939380539994,-0.3987142213747605,-0.5016204844847918,-0.6690637030780079,-0.5499159502327003,-0.36986756730069803,0.42515356228643075],[0.5106601743309932,-0.6843883068828897,-0.04179156509581532,0.47639797364842057,0.0016990452087433175,-0.31134054774078285,-0.7469957042749186,-0.4454869937650765,-0.2959122388846569,-0.3798186711583486,0.2756491268223299,0.4888274749190962],[0.37653196358324176,0.6531914486233932,0.617126201383732,0.3852515034167216,-0.5707582477948663,-0.18381133681676343,-0.3517814604359621,-0.08395320930208532,-0.008758658309044515,-0.7186753966345903,-0.22069918366392674,0.5350079530410252],[0.20536566560047045,0.43828342398935427,-0.8029848054814943,-0.6871740176011047,-0.46077890010820094,0.20968546041677488,0.3082116939585861,-0.2987310312994203,-0.2942303356449524,0.07322430577992675,-0.5033023823584588,0.557802364779597],[-0.5909184919625479,-0.41197090795111174,-0.3238519359033538,0.32401802066298147,-0.08646691763229836,-0.12539610867021825,-0.44904452433304365,0.03116059759196177,-0.15632074928759998,-0.03425771690295055,-0.3703869813958835,0.34721983628492536],[-0.6956338594589346,0.6706414593726266,-0.5417872048660635,0.21219085716017114,0.5186761484181083,-0.028260353963792877,-0.4349809836578959,0.18824714804246495,0.4946971160666764,-0.566211200222622,-0.3931806188682666,-0.34133898766731585],[-0.6614011330741433,-0.27569075875008264,0.2520903749518328,-0.08862753311602256,-0.5655852140814438,0.07814445344228647,-0.19501258195390034,0.44459535661404187,-0.5382292098678868,-0.48390883431087206,-0.17563551587951512,-0.4733896764343491],[0.26400030653156137,-0.46274715120152116,0.26779865435880645,-0.5303668132747429,0.6717402817569885,0.43296531650820447,0.6868432226262002,-0.6678732454137538,0.08056476008175534,-0.324252926757836,0.349145137638188,0.10937594628183087]]},{"inputs":[0,0,1,1,1,1,0,1,0,0,0,0],"outputs":[0,1,0,0,0,1,1,0],"biases":[0.5792736044132905,-0.03519832436333573,0.27389086047233996,0.5224079427698382,-0.21281145351652217,0.13999834336652997,0.31078811686909524,0.3715067221676659],"weights":[[0.3660356334999881,0.17540704890434333,-0.3333636499095949,0.15023144653363998,-0.43917978771212063,0.2068581066254609,0.3381831636246804,-0.4972556885441829],[-0.6465073566753256,0.7409157067442451,-0.6570124378833011,-0.5790201207911317,-0.09645764370409782,0.13108669909570025,0.12853481740900502,-0.1834639668391903],[-0.5681891547432038,-0.0232934800980538,0.39748324215876585,0.6336787788209457,0.10645695050689882,0.16589085815950902,0.5003817103505155,0.14088889454389508],[-0.6351019047467762,0.6260665623184376,0.5346978576677232,-0.017896203342147875,0.4360502360941294,0.6173696487172963,0.36444809714847637,0.2468606438384746],[-0.1611392836420855,0.26569643064974957,-0.17426145111918814,-0.011536731833477719,-0.21177887315272975,0.44617565211065524,0.12773353560913145,-0.536759049201578],[0.3795087670438575,-0.6417854552759342,-0.6484968744776443,-0.1913343259875026,-0.637045215728528,-0.39136419013564194,0.36085981770689635,-0.22120384437194984],[-0.2853701287901737,0.3111854230557521,0.5574509996167986,0.7930435453977118,-0.486168758467623,-0.341906522550555,0.2569138234018687,-0.48147731535471694],[0.29578853625403967,0.6311588710038588,-0.19126618071565096,-0.014123064652203034,-0.1415561626520897,0.16552111151921753,0.09443079355652298,0.2719565490552868],[0.16823131991403595,0.07636885913360059,-0.4664751612958717,-0.06307889943649378,0.5099949603647399,0.15119073641619815,0.32034077105415365,-0.2573310729432043],[-0.5197317418630781,-0.7787365001713346,0.6418095977945577,0.5164868982198553,0.27256722602829175,-0.6464416610656296,0.6119200419961823,0.14484728337590208],[-0.5610955067242713,-0.05229351114011377,-0.16182273717615567,0.4252141631453618,-0.25116217087134923,-0.3418394030386253,0.6164376060528252,0.3572053357763515],[0.3495911215918574,0.015562743968229733,-0.19156610134363844,0.6919536350231182,-0.5519101343560777,-0.1301516363294346,-0.6091621646542197,0.0013862942005374024]]},{"inputs":[0,1,0,0,0,1,1,0],"outputs":[1,1,1,0,1],"biases":[-0.5327455712119678,0.027526624012632703,0.4980490737710873,0.18643145692495158,-0.6650950027070522],"weights":[[0.11415730102732852,-0.593578724286604,-0.5537160222599139,-0.10411389151788523,-0.04575161178264332],[-0.05066891797942757,-0.0503643988121206,0.7329034411991752,0.4854176615365667,-0.11488621767276705],[0.36017959994697046,-0.3836524166936725,0.3387535890632196,-0.5330138348617328,-0.08939800926216288],[-0.23252735290882035,-0.7801115413296691,0.12265066977045683,-0.3362384527578189,-0.839384777841122],[-0.3826507754427389,0.44769174655609906,0.5603545332705492,0.2735842544407658,-0.5953845796225324],[0.6495007739917662,0.07799684229057215,-0.5152310565540281,-0.2274630506698171,0.4254308690016828],[0.6116612569848525,0.2770290666574301,0.3031372361382039,-0.25270944018827934,0.09958026177249762],[-0.09056622810062978,0.6114030023516166,0.3248350331328642,0.4922283061907672,-0.4561593216268646]]}]}